digraph Tree {
node [shape=box, fontname="helvetica"] ;
edge [fontname="helvetica"] ;
0 [label="男性 <= 0.5\nentropy = 0.965\nsamples = 712\nvalue = [434, 278]"] ;
1 [label="pclass <= 2.5\nentropy = 0.817\nsamples = 256\nvalue = [65, 191]"] ;
0 -> 1 [labeldistance=2.5, labelangle=45, headlabel="True"] ;
2 [label="age <= 2.5\nentropy = 0.286\nsamples = 140\nvalue = [7, 133]"] ;
1 -> 2 ;
3 [label="pclass <= 1.5\nentropy = 1.0\nsamples = 2\nvalue = [1, 1]"] ;
2 -> 3 ;
4 [label="entropy = 0.0\nsamples = 1\nvalue = [1, 0]"] ;
3 -> 4 ;
5 [label="entropy = 0.0\nsamples = 1\nvalue = [0, 1]"] ;
3 -> 5 ;
6 [label="age <= 23.5\nentropy = 0.258\nsamples = 138\nvalue = [6, 132]"] ;
2 -> 6 ;
7 [label="entropy = 0.0\nsamples = 34\nvalue = [0, 34]"] ;
6 -> 7 ;
8 [label="age <= 27.5\nentropy = 0.318\nsamples = 104\nvalue = [6, 98]"] ;
6 -> 8 ;
9 [label="entropy = 0.742\nsamples = 19\nvalue = [4, 15]"] ;
8 -> 9 ;
10 [label="entropy = 0.161\nsamples = 85\nvalue = [2, 83]"] ;
8 -> 10 ;
11 [label="age <= 36.5\nentropy = 1.0\nsamples = 116\nvalue = [58, 58]"] ;
1 -> 11 ;
12 [label="age <= 1.5\nentropy = 0.994\nsamples = 106\nvalue = [48, 58]"] ;
11 -> 12 ;
13 [label="entropy = 0.0\nsamples = 3\nvalue = [0, 3]"] ;
12 -> 13 ;
14 [label="age <= 32.5\nentropy = 0.997\nsamples = 103\nvalue = [48, 55]"] ;
12 -> 14 ;
15 [label="entropy = 0.999\nsamples = 100\nvalue = [48, 52]"] ;
14 -> 15 ;
16 [label="entropy = 0.0\nsamples = 3\nvalue = [0, 3]"] ;
14 -> 16 ;
17 [label="entropy = 0.0\nsamples = 10\nvalue = [10, 0]"] ;
11 -> 17 ;
18 [label="age <= 13.0\nentropy = 0.703\nsamples = 456\nvalue = [369, 87]"] ;
0 -> 18 [labeldistance=2.5, labelangle=-45, headlabel="False"] ;
19 [label="pclass <= 2.5\nentropy = 0.948\nsamples = 30\nvalue = [11, 19]"] ;
18 -> 19 ;
20 [label="entropy = 0.0\nsamples = 11\nvalue = [0, 11]"] ;
19 -> 20 ;
21 [label="age <= 0.71\nentropy = 0.982\nsamples = 19\nvalue = [11, 8]"] ;
19 -> 21 ;
22 [label="entropy = 0.0\nsamples = 1\nvalue = [0, 1]"] ;
21 -> 22 ;
23 [label="age <= 2.5\nentropy = 0.964\nsamples = 18\nvalue = [11, 7]"] ;
21 -> 23 ;
24 [label="entropy = 0.65\nsamples = 6\nvalue = [5, 1]"] ;
23 -> 24 ;
25 [label="entropy = 1.0\nsamples = 12\nvalue = [6, 6]"] ;
23 -> 25 ;
26 [label="pclass <= 1.5\nentropy = 0.633\nsamples = 426\nvalue = [358, 68]"] ;
18 -> 26 ;
27 [label="age <= 53.0\nentropy = 0.932\nsamples = 95\nvalue = [62, 33]"] ;
26 -> 27 ;
28 [label="age <= 22.5\nentropy = 0.978\nsamples = 75\nvalue = [44, 31]"] ;
27 -> 28 ;
29 [label="entropy = 0.0\nsamples = 3\nvalue = [3, 0]"] ;
28 -> 29 ;
30 [label="entropy = 0.986\nsamples = 72\nvalue = [41, 31]"] ;
28 -> 30 ;
31 [label="age <= 75.5\nentropy = 0.469\nsamples = 20\nvalue = [18, 2]"] ;
27 -> 31 ;
32 [label="entropy = 0.297\nsamples = 19\nvalue = [18, 1]"] ;
31 -> 32 ;
33 [label="entropy = 0.0\nsamples = 1\nvalue = [0, 1]"] ;
31 -> 33 ;
34 [label="age <= 32.25\nentropy = 0.487\nsamples = 331\nvalue = [296, 35]"] ;
26 -> 34 ;
35 [label="age <= 30.5\nentropy = 0.545\nsamples = 247\nvalue = [216, 31]"] ;
34 -> 35 ;
36 [label="entropy = 0.484\nsamples = 229\nvalue = [205, 24]"] ;
35 -> 36 ;
37 [label="entropy = 0.964\nsamples = 18\nvalue = [11, 7]"] ;
35 -> 37 ;
38 [label="age <= 38.5\nentropy = 0.276\nsamples = 84\nvalue = [80, 4]"] ;
34 -> 38 ;
39 [label="entropy = 0.0\nsamples = 36\nvalue = [36, 0]"] ;
38 -> 39 ;
40 [label="entropy = 0.414\nsamples = 48\nvalue = [44, 4]"] ;
38 -> 40 ;
}